1.00000000000000e+00,9.99066777738959e-01,-2.85069605333329e-07
1.02329299228075e+00,9.99066777738837e-01,-2.91709729449999e-07
1.04712854805090e+00,9.99066777738866e-01,-2.98504521926253e-07
1.07151930523761e+00,9.99066777739007e-01,-3.05457585450383e-07
1.09647819614318e+00,9.99066777738745e-01,-3.12572606630807e-07
1.12201845430196e+00,9.99066777738772e-01,-3.19853357944199e-07
1.14815362149688e+00,9.99066777738800e-01,-3.27303699741763e-07
1.17489755493953e+00,9.99066777738902e-01,-3.34927582292669e-07
1.20226443461741e+00,9.99066777738909e-01,-3.42729047881761e-07
1.23026877081238e+00,9.99066777738953e-01,-3.50712232948333e-07
1.25892541179417e+00,9.99066777739038e-01,-3.58881370282679e-07
1.28824955169313e+00,9.99066777738572e-01,-3.67240791270735e-07
1.31825673855641e+00,9.99066777738686e-01,-3.75794928186274e-07
1.34896288259165e+00,9.99066777738722e-01,-3.84548316547680e-07
1.38038426460288e+00,9.99066777738850e-01,-3.93505597515643e-07
1.41253754462275e+00,9.99066777738833e-01,-4.02671520361554e-07
1.44543977074593e+00,9.99066777738897e-01,-4.12050944976791e-07
1.47910838816821e+00,9.99066777738229e-01,-4.21648844457661e-07
1.51356124843621e+00,9.99066777738387e-01,-4.31470307735581e-07
1.54881661891248e+00,9.99066777738420e-01,-4.41520542283133e-07
1.58489319246111e+00,9.99066777738542e-01,-4.51804876865541e-07
1.62181009735893e+00,9.99066777738606e-01,-4.62328764374571e-07
1.65958690743756e+00,9.99066777738701e-01,-4.73097784713843e-07
1.69824365246174e+00,9.99066777738872e-01,-4.84117647759865e-07
1.73780082874937e+00,9.99066777738625e-01,-4.95394196391267e-07
1.77827941003892e+00,9.99066777738037e-01,-5.06933409583368e-07
1.81970085860998e+00,9.99066777737379e-01,-5.18741405580086e-07
1.86208713666287e+00,9.99066777737269e-01,-5.30824445135279e-07
1.90546071796325e+00,9.99066777737299e-01,-5.43188934838647e-07
1.94984459975804e+00,9.99066777737191e-01,-5.55841430502368e-07
1.99526231496888e+00,9.99066777737341e-01,-5.68788640651290e-07
2.04173794466953e+00,9.99066777737503e-01,-5.82037430066133e-07
2.08929613085404e+00,9.99066777736887e-01,-5.95594823431955e-07
2.13796208950223e+00,9.99066777736786e-01,-6.09468009056005e-07
2.18776162394955e+00,9.99066777736665e-01,-6.23664342686017e-07
2.23872113856834e+00,9.99066777736900e-01,-6.38191351403740e-07
2.29086765276777e+00,9.99066777736584e-01,-6.53056737624992e-07
2.34422881531992e+00,9.99066777736772e-01,-6.68268383171916e-07
2.39883291901949e+00,9.99066777737011e-01,-6.83834353460512e-07
2.45470891568503e+00,9.99066777736929e-01,-6.99762901776426e-07
2.51188643150958e+00,9.99066777736606e-01,-7.16062473645515e-07
2.57039578276886e+00,9.99066777736900e-01,-7.32741711313664e-07
2.63026799189538e+00,9.99066777736454e-01,-7.49809458337099e-07
2.69153480392691e+00,9.99066777736622e-01,-7.67274764261633e-07
2.75422870333816e+00,9.99066777736929e-01,-7.85146889419553e-07
2.81838293126445e+00,9.99066777735674e-01,-8.03435309854715e-07
2.88403150312660e+00,9.99066777735734e-01,-8.22149722322553e-07
2.95120922666638e+00,9.99066777736034e-01,-8.41300049455321e-07
3.01995172040201e+00,9.99066777735161e-01,-8.60896445006702e-07
3.09029543251359e+00,9.99066777734976e-01,-8.80949299252592e-07
3.16227766016837e+00,9.99066777734857e-01,-9.01469244476484e-07
3.23593656929628e+00,9.99066777735223e-01,-9.22467160625570e-07
3.31131121482591e+00,9.99066777734842e-01,-9.43954181074944e-07
3.38844156139202e+00,9.99066777734146e-01,-9.65941698524143e-07
3.46736850452531e+00,9.99066777734485e-01,-9.88441371045983e-07
3.54813389233575e+00,9.99066777733229e-01,-1.01146512826920e-06
3.63078054770101e+00,9.99066777733398e-01,-1.03502517769019e-06
3.71535229097172e+00,9.99066777732511e-01,-1.05913401116176e-06
3.80189396320560e+00,9.99066777732664e-01,-1.08380441150170e-06
3.89045144994280e+00,9.99066777732643e-01,-1.10904945928669e-06
3.98107170553496e+00,9.99066777732868e-01,-1.13488253977274e-06
4.07380277804112e+00,9.99066777732850e-01,-1.16131735000438e-06
4.16869383470335e+00,9.99066777732073e-01,-1.18836790606949e-06
4.26579518801592e+00,9.99066777732279e-01,-1.21604855052554e-06
4.36515832240165e+00,9.99066777731487e-01,-1.24437396001502e-06
4.46683592150962e+00,9.99066777731002e-01,-1.27335915305469e-06
4.57088189614874e+00,9.99066777730877e-01,-1.30301949796454e-06
4.67735141287197e+00,9.99066777729985e-01,-1.33337072106572e-06
4.78630092322637e+00,9.99066777730495e-01,-1.36442891496468e-06
4.89778819368445e+00,9.99066777729256e-01,-1.39621054714385e-06
5.01187233627271e+00,9.99066777729542e-01,-1.42873246862708e-06
5.12861383991364e+00,9.99066777728974e-01,-1.46201192297787e-06
5.24807460249771e+00,9.99066777727659e-01,-1.49606655539011e-06
5.37031796370252e+00,9.99066777726656e-01,-1.53091442210914e-06
5.49540873857623e+00,9.99066777727033e-01,-1.56657399990750e-06
5.62341325190348e+00,9.99066777726458e-01,-1.60306419597698e-06
5.75439937337156e+00,9.99066777726523e-01,-1.64040435789856e-06
5.88843655355588e+00,9.99066777725715e-01,-1.67861428392281e-06
6.02559586074356e+00,9.99066777725780e-01,-1.71771423346286e-06
6.16595001861481e+00,9.99066777724784e-01,-1.75772493781884e-06
6.30957344480192e+00,9.99066777724012e-01,-1.79866761120685e-06
6.45654229034654e+00,9.99066777722846e-01,-1.84056396197026e-06
6.60693448007594e+00,9.99066777722628e-01,-1.88343620409755e-06
6.76082975391980e+00,9.99066777721783e-01,-1.92730706902978e-06
6.91830970918935e+00,9.99066777721520e-01,-1.97219981767892e-06
7.07945784384136e+00,9.99066777719451e-01,-2.01813825276179e-06
7.24435960074988e+00,9.99066777719023e-01,-2.06514673147224e-06
7.41310241300916e+00,9.99066777718018e-01,-2.11325017831009e-06
7.58577575029182e+00,9.99066777717113e-01,-2.16247409836205e-06
7.76247116628690e+00,9.99066777716127e-01,-2.21284459080216e-06
7.94328234724279e+00,9.99066777715434e-01,-2.26438836272033e-06
8.12830516164097e+00,9.99066777714487e-01,-2.31713274332255e-06
8.31763771102669e+00,9.99066777712611e-01,-2.37110569836929e-06
8.51138038202374e+00,9.99066777712762e-01,-2.42633584503070e-06
8.70963589956078e+00,9.99066777712080e-01,-2.48285246707415e-06
8.91250938133743e+00,9.99066777709049e-01,-2.54068553036421e-06
9.12010839355907e+00,9.99066777708362e-01,-2.59986569873467e-06
9.33254300796988e+00,9.99066777706981e-01,-2.66042435029847e-06
9.54992586021433e+00,9.99066777705972e-01,-2.72239359407522e-06
9.77237220955808e+00,9.99066777704906e-01,-2.78580628695177e-06
9.99999999999997e+00,9.99066777702639e-01,-2.85069605119531e-06
1.02329299228075e+01,9.99066777700882e-01,-2.91709729219452e-06
1.04712854805090e+01,9.99066777697749e-01,-2.98504521681383e-06
1.07151930523760e+01,9.99066777696008e-01,-3.05457585186318e-06
1.09647819614318e+01,9.99066777693748e-01,-3.12572606349244e-06
1.12201845430196e+01,9.99066777692390e-01,-3.19853357642014e-06
1.14815362149688e+01,9.99066777690011e-01,-3.27303699417512e-06
1.17489755493953e+01,9.99066777687749e-01,-3.34927581945595e-06
1.20226443461741e+01,9.99066777684787e-01,-3.42729047509445e-06
1.23026877081238e+01,9.99066777682561e-01,-3.50712232551074e-06
1.25892541179416e+01,9.99066777679900e-01,-3.58881369856491e-06
1.28824955169313e+01,9.99066777677085e-01,-3.67240790815088e-06
1.31825673855640e+01,9.99066777674543e-01,-3.75794927697711e-06
1.34896288259165e+01,9.99066777670971e-01,-3.84548316022156e-06
1.38038426460288e+01,9.99066777668555e-01,-3.93505596953447e-06
1.41253754462275e+01,9.99066777665084e-01,-4.02671519759145e-06
1.44543977074592e+01,9.99066777661622e-01,-4.12050944330581e-06
1.47910838816820e+01,9.99066777657748e-01,-4.21648843764274e-06
1.51356124843620e+01,9.99066777653730e-01,-4.31470306992648e-06
1.54881661891248e+01,9.99066777650013e-01,-4.41520541489970e-06
1.58489319246111e+01,9.99066777644601e-01,-4.51804876014511e-06
1.62181009735892e+01,9.99066777640211e-01,-4.62328763460991e-06
1.65958690743755e+01,9.99066777637488e-01,-4.73097783737761e-06
1.69824365246174e+01,9.99066777631846e-01,-4.84117646711964e-06
1.73780082874937e+01,9.99066777625632e-01,-4.95394195269842e-06
1.77827941003892e+01,9.99066777620600e-01,-5.06933408381766e-06
1.81970085860998e+01,9.99066777614554e-01,-5.18741404292011e-06
1.86208713666286e+01,9.99066777608674e-01,-5.30824443755010e-06
1.90546071796324e+01,9.99066777602586e-01,-5.43188933359946e-06
1.94984459975804e+01,9.99066777596917e-01,-5.55841428919017e-06
1.99526231496887e+01,9.99066777589931e-01,-5.68788638954181e-06
2.04173794466952e+01,9.99066777581961e-01,-5.82037428249049e-06
2.08929613085403e+01,9.99066777575736e-01,-5.95594821484628e-06
2.13796208950222e+01,9.99066777568091e-01,-6.09468006968971e-06
2.18776162394954e+01,9.99066777560451e-01,-6.23664340445478e-06
2.23872113856833e+01,9.99066777552058e-01,-6.38191349004180e-06
2.29086765276776e+01,9.99066777542780e-01,-6.53056735054713e-06
2.34422881531991e+01,9.99066777534029e-01,-6.68268380420445e-06
2.39883291901948e+01,9.99066777524224e-01,-6.83834350509680e-06
2.45470891568502e+01,9.99066777514444e-01,-6.99762898615499e-06
2.51188643150957e+01,9.99066777503706e-01,-7.16062470260104e-06
2.57039578276885e+01,9.99066777492896e-01,-7.32741707681464e-06
2.63026799189537e+01,9.99066777481782e-01,-7.49809454449176e-06
2.69153480392690e+01,9.99066777469071e-01,-7.67274760091027e-06
2.75422870333815e+01,9.99066777456052e-01,-7.85146884954619e-06
2.81838293126444e+01,9.99066777443078e-01,-8.03435305067966e-06
2.88403150312659e+01,9.99066777428820e-01,-8.22149717193656e-06
2.95120922666637e+01,9.99066777413506e-01,-8.41300043956373e-06
3.01995172040200e+01,9.99066777399010e-01,-8.60896439123416e-06
3.09029543251358e+01,9.99066777382073e-01,-8.80949292948296e-06
3.16227766016837e+01,9.99066777364846e-01,-9.01469237720458e-06
3.23593656929627e+01,9.99066777348559e-01,-9.22467153386297e-06
3.31131121482590e+01,9.99066777329649e-01,-9.43954173310811e-06
3.38844156139201e+01,9.99066777310413e-01,-9.65941690211064e-06
3.46736850452530e+01,9.99066777290639e-01,-9.88441362137121e-06
3.54813389233574e+01,9.99066777269930e-01,-1.01146511872220e-05
3.63078054770100e+01,9.99066777246757e-01,-1.03502516745808e-05
3.71535229097171e+01,9.99066777223896e-01,-1.05913400019551e-05
3.80189396320559e+01,9.99066777199735e-01,-1.08380439975552e-05
3.89045144994279e+01,9.99066777173431e-01,-1.10904944669905e-05
3.98107170553495e+01,9.99066777146585e-01,-1.13488252628776e-05
4.07380277804111e+01,9.99066777119860e-01,-1.16131733555132e-05
4.16869383470333e+01,9.99066777089726e-01,-1.18836789058235e-05
4.26579518801591e+01,9.99066777061079e-01,-1.21604853392884e-05
4.36515832240164e+01,9.99066777028292e-01,-1.24437394223566e-05
4.46683592150961e+01,9.99066776993295e-01,-1.27335913400537e-05
4.57088189614873e+01,9.99066776959441e-01,-1.30301947755117e-05
4.67735141287196e+01,9.99066776921614e-01,-1.33337069919374e-05
4.78630092322636e+01,9.99066776883121e-01,-1.36442889152340e-05
4.89778819368444e+01,9.99066776844081e-01,-1.39621052202111e-05
5.01187233627270e+01,9.99066776802383e-01,-1.42873244170933e-05
5.12861383991362e+01,9.99066776756941e-01,-1.46201189414118e-05
5.24807460249770e+01,9.99066776710253e-01,-1.49606652449776e-05
5.37031796370250e+01,9.99066776662580e-01,-1.53091438899900e-05
5.49540873857622e+01,9.99066776612967e-01,-1.56657396442331e-05
5.62341325190346e+01,9.99066776559482e-01,-1.60306415795953e-05
5.75439937337154e+01,9.99066776502691e-01,-1.64040431717183e-05
5.88843655355586e+01,9.99066776444720e-01,-1.67861424027897e-05
6.02559586074355e+01,9.99066776384781e-01,-1.71771418668836e-05
6.16595001861479e+01,9.99066776320316e-01,-1.75772488770848e-05
6.30957344480190e+01,9.99066776253152e-01,-1.79866755750549e-05
6.45654229034652e+01,9.99066776183908e-01,-1.84056390442320e-05
6.60693448007593e+01,9.99066776109207e-01,-1.88343614243838e-05
6.76082975391978e+01,9.99066776033093e-01,-1.92730700295029e-05
6.91830970918933e+01,9.99066775952793e-01,-1.97219974688129e-05
7.07945784384134e+01,9.99066775867662e-01,-2.01813817692158e-05
7.24435960074986e+01,9.99066775779948e-01,-2.06514665020396e-05
7.41310241300914e+01,9.99066775687441e-01,-2.11325009122107e-05
7.58577575029180e+01,9.99066775590338e-01,-2.16247400504564e-05
7.76247116628688e+01,9.99066775488551e-01,-2.21284449081263e-05
7.94328234724277e+01,9.99066775383474e-01,-2.26438825557342e-05
8.12830516164095e+01,9.99066775272114e-01,-2.31713262851471e-05
8.31763771102667e+01,9.99066775157186e-01,-2.37110557534923e-05
8.51138038202372e+01,9.99066775034996e-01,-2.42633571322418e-05
8.70963589956076e+01,9.99066774906609e-01,-2.48285232583531e-05
8.91250938133741e+01,9.99066774773216e-01,-2.54068537902028e-05
9.12010839355905e+01,9.99066774633194e-01,-2.59986553657534e-05
9.33254300796986e+01,9.99066774487374e-01,-2.66042417654631e-05
9.54992586021431e+01,9.99066774335254e-01,-2.72239340789357e-05
9.77237220955805e+01,9.99066774175412e-01,-2.78580608745981e-05
9.99999999999995e+01,9.99066774006713e-01,-2.85069583742664e-05
1.02329299228075e+02,9.99066773829492e-01,-2.91709706315318e-05
1.04712854805089e+02,9.99066773646883e-01,-2.98504497136190e-05
1.07151930523760e+02,9.99066773453911e-01,-3.05457558887742e-05
1.09647819614318e+02,9.99066773250710e-01,-3.12572578169031e-05
1.12201845430196e+02,9.99066773040359e-01,-3.19853327446751e-05
1.14815362149688e+02,9.99066772818153e-01,-3.27303667063152e-05
1.17489755493952e+02,9.99066772587402e-01,-3.34927547276724e-05
1.20226443461741e+02,9.99066772343194e-01,-3.42729010362122e-05
1.23026877081237e+02,9.99066772088521e-01,-3.50712192743530e-05
1.25892541179416e+02,9.99066771822735e-01,-3.58881327202714e-05
1.28824955169313e+02,9.99066771544703e-01,-3.67240745109742e-05
1.31825673855640e+02,9.99066771251601e-01,-3.75794878726151e-05
1.34896288259165e+02,9.99066770946092e-01,-3.84548263548799e-05
1.38038426460288e+02,9.99066770626074e-01,-3.93505540727610e-05
1.41253754462275e+02,9.99066770291506e-01,-4.02671459511631e-05
1.44543977074592e+02,9.99066769940312e-01,-4.12050879775756e-05
1.47910838816820e+02,9.99066769572607e-01,-4.21648774592695e-05
1.51356124843620e+02,9.99066769187788e-01,-4.31470232873338e-05
1.54881661891247e+02,9.99066768783600e-01,-4.41520462066966e-05
1.58489319246110e+02,9.99066768361743e-01,-4.51804790912366e-05
1.62181009735892e+02,9.99066767920015e-01,-4.62328672275313e-05
1.65958690743755e+02,9.99066767458398e-01,-4.73097686024991e-05
1.69824365246173e+02,9.99066766975255e-01,-4.84117542012548e-05
1.73780082874936e+02,9.99066766466748e-01,-4.95394083083658e-05
1.77827941003891e+02,9.99066765936058e-01,-5.06933288170898e-05
1.81970085860997e+02,9.99066765378240e-01,-5.18741275483407e-05
1.86208713666286e+02,9.99066764795180e-01,-5.30824305733354e-05
1.90546071796323e+02,9.99066764186435e-01,-5.43188785467425e-05
1.94984459975803e+02,9.99066763548113e-01,-5.55841270447772e-05
1.99526231496887e+02,9.99066762877416e-01,-5.68788469153019e-05
2.04173794466952e+02,9.99066762178594e-01,-5.82037246300441e-05
2.08929613085403e+02,9.99066761445044e-01,-5.95594626521453e-05
2.13796208950222e+02,9.99066760677696e-01,-6.09467798064770e-05
2.18776162394954e+02,9.99066759872683e-01,-6.23664116603991e-05
2.23872113856832e+02,9.99066759029531e-01,-6.38191109155455e-05
2.29086765276776e+02,9.99066758148683e-01,-6.53056478048530e-05
2.34422881531991e+02,9.99066757226567e-01,-6.68268105028947e-05
2.39883291901947e+02,9.99066756258729e-01,-6.83834055430817e-05
2.45470891568501e+02,9.99066755247586e-01,-6.99762582432121e-05
2.51188643150956e+02,9.99066754186159e-01,-7.16062131459003e-05
2.57039578276885e+02,9.99066753076951e-01,-7.32741344654176e-05
2.63026799189536e+02,9.99066751913216e-01,-7.49809065456438e-05
2.69153480392690e+02,9.99066750695747e-01,-7.67274343283546e-05
2.75422870333815e+02,9.99066749422686e-01,-7.85146438331107e-05
2.81838293126443e+02,9.99066748089190e-01,-8.03434826503110e-05
2.88403150312659e+02,9.99066746690904e-01,-8.22149204402718e-05
2.95120922666637e+02,9.99066745227201e-01,-8.41299494494851e-05
3.01995172040200e+02,9.99066743695481e-01,-8.60895850357266e-05
3.09029543251357e+02,9.99066742092112e-01,-8.80948662073631e-05
3.16227766016836e+02,9.99066740411631e-01,-9.01468561726705e-05
3.23593656929626e+02,9.99066738653116e-01,-9.22466429044043e-05
3.31131121482589e+02,9.99066736808763e-01,-9.43953397177126e-05
3.38844156139200e+02,9.99066734881241e-01,-9.65940858561314e-05
3.46736850452529e+02,9.99066732861982e-01,-9.88440471010119e-05
3.54813389233573e+02,9.99066730746879e-01,-1.01146416385926e-04
3.63078054770099e+02,9.99066728532195e-01,-1.03502414430531e-04
3.71535229097170e+02,9.99066726212773e-01,-1.05913290386957e-04
3.80189396320558e+02,9.99066723784877e-01,-1.08380322502005e-04
3.89045144994278e+02,9.99066721241020e-01,-1.10904818795534e-04
3.98107170553494e+02,9.99066718579428e-01,-1.13488117750913e-04
4.07380277804110e+02,9.99066715791386e-01,-1.16131589031926e-04
4.16869383470332e+02,9.99066712871264e-01,-1.18836634198931e-04
4.26579518801589e+02,9.99066709814421e-01,-1.21604687457874e-04
4.36515832240163e+02,9.99066706613626e-01,-1.24437216420983e-04
4.46683592150960e+02,9.99066703261148e-01,-1.27335722881274e-04
4.57088189614872e+02,9.99066699749816e-01,-1.30301743611164e-04
4.67735141287195e+02,9.99066696074698e-01,-1.33336851174523e-04
4.78630092322635e+02,9.99066692228005e-01,-1.36442654763639e-04
4.89778819368442e+02,9.99066688197177e-01,-1.39620801050559e-04
5.01187233627268e+02,9.99066683976087e-01,-1.42872975057623e-04
5.12861383991361e+02,9.99066679558237e-01,-1.46200901053030e-04
5.24807460249769e+02,9.99066674930952e-01,-1.49606343466139e-04
5.37031796370249e+02,9.99066670085220e-01,-1.53091107818133e-04
5.49540873857620e+02,9.99066665011134e-01,-1.56657041682939e-04
5.62341325190345e+02,9.99066659699475e-01,-1.60306035664100e-04
5.75439937337152e+02,9.99066654137732e-01,-1.64040024398232e-04
5.88843655355584e+02,9.99066648311803e-01,-1.67860987579178e-04
6.02559586074353e+02,9.99066642213233e-01,-1.71770951006382e-04
6.16595001861477e+02,9.99066635825902e-01,-1.75771987660417e-04
6.30957344480188e+02,9.99066629137639e-01,-1.79866218802938e-04
6.45654229034650e+02,9.99066622133385e-01,-1.84055815093304e-04
6.60693448007591e+02,9.99066614800909e-01,-1.88342997747219e-04
6.76082975391976e+02,9.99066607122236e-01,-1.92730039708280e-04
6.91830970918931e+02,9.99066599081538e-01,-1.97219266856530e-04
7.07945784384132e+02,9.99066590661950e-01,-2.01813059237598e-04
7.24435960074984e+02,9.99066581845888e-01,-2.06513852322541e-04
7.41310241300911e+02,9.99066572614251e-01,-2.11324138303085e-04
7.58577575029177e+02,9.99066562946142e-01,-2.16246467405571e-04
7.76247116628685e+02,9.99066552824014e-01,-2.21283449248140e-04
7.94328234724275e+02,9.99066542223465e-01,-2.26437754220726e-04
8.12830516164092e+02,9.99066531125675e-01,-2.31712114895869e-04
8.31763771102664e+02,9.99066519503834e-01,-2.37109327478805e-04
8.51138038202369e+02,9.99066507333763e-01,-2.42632253297925e-04
8.70963589956073e+02,9.99066494589421e-01,-2.48283820297907e-04
8.91250938133738e+02,9.99066481245887e-01,-2.54067024612020e-04
9.12010839355902e+02,9.99066467272677e-01,-2.59984932142525e-04
9.33254300796983e+02,9.99066452642705e-01,-2.66040680172892e-04
9.54992586021428e+02,9.99066437320238e-01,-2.72237479050232e-04
9.77237220955802e+02,9.99066421278619e-01,-2.78578613860861e-04
9.99999999999991e+02,9.99066404479200e-01,-2.85067446191098e-04
1.02329299228075e+03,9.99066386887839e-01,-2.91707415893344e-04
1.04712854805089e+03,9.99066368469807e-01,-2.98502042912018e-04
1.07151930523760e+03,9.99066349182413e-01,-3.05454929149998e-04
1.09647819614318e+03,9.99066328986361e-01,-3.12569760360417e-04
1.12201845430195e+03,9.99066307838518e-01,-3.19850308121065e-04
1.14815362149687e+03,9.99066285693649e-01,-3.27300431809580e-04
1.17489755493952e+03,9.99066262504336e-01,-3.34924080655255e-04
1.20226443461740e+03,9.99066238224646e-01,-3.42725295822027e-04
1.23026877081237e+03,9.99066212800059e-01,-3.50708212560480e-04
1.25892541179416e+03,9.99066186176854e-01,-3.58877062376234e-04
1.28824955169312e+03,9.99066158300090e-01,-3.67236175287127e-04
1.31825673855640e+03,9.99066129108711e-01,-3.75789982093938e-04
1.34896288259164e+03,9.99066098542515e-01,-3.84543016738358e-04
1.38038426460287e+03,9.99066066535860e-01,-3.93499918698549e-04
1.41253754462274e+03,9.99066033019145e-01,-4.02665435432614e-04
1.44543977074591e+03,9.99065997926542e-01,-4.12044424892608e-04
1.47910838816819e+03,9.99065961179068e-01,-4.21641858100385e-04
1.51356124843619e+03,9.99065922699546e-01,-4.31462821768263e-04
1.54881661891247e+03,9.99065882405469e-01,-4.41512520975747e-04
1.58489319246110e+03,9.99065840216779e-01,-4.51796281937730e-04
1.62181009735891e+03,9.99065796036422e-01,-4.62319554810344e-04
1.65958690743754e+03,9.99065749776708e-01,-4.73087916558497e-04
1.69824365246173e+03,9.99065701335721e-01,-4.84107073924003e-04
1.73780082874936e+03,9.99065650612947e-01,-4.95382866413275e-04
1.77827941003891e+03,9.99065597500539e-01,-5.06921269396189e-04
1.81970085860997e+03,9.99065541887238e-01,-5.18728397245422e-04
1.86208713666285e+03,9.99065483650118e-01,-5.30810506585983e-04
1.90546071796323e+03,9.99065422671966e-01,-5.43173999559767e-04
1.94984459975803e+03,9.99065358820113e-01,-5.55825427226590e-04
1.99526231496886e+03,9.99065291960603e-01,-5.68771493013080e-04
2.04173794466951e+03,9.99065221951738e-01,-5.82019056244725e-04
2.08929613085402e+03,9.99065148643182e-01,-5.95575135758331e-04
2.13796208950221e+03,9.99065071881512e-01,-6.09446913591272e-04
2.18776162394953e+03,9.99064991504165e-01,-6.23641738777013e-04
2.23872113856832e+03,9.99064907339766e-01,-6.38167131204549e-04
2.29086765276775e+03,9.99064819211796e-01,-6.53030785574988e-04
2.34422881531990e+03,9.99064726930611e-01,-6.68240575461244e-04
2.39883291901947e+03,9.99064630305615e-01,-6.83804557420379e-04
2.45470891568501e+03,9.99064529126764e-01,-6.99730975257636e-04
2.51188643150955e+03,9.99064423181426e-01,-7.16028264338371e-04
2.57039578276884e+03,9.99064312246752e-01,-7.32705056028393e-04
2.63026799189535e+03,9.99064196087767e-01,-7.49770182220141e-04
2.69153480392689e+03,9.99064074458179e-01,-7.67232679957384e-04
2.75422870333814e+03,9.99063947098420e-01,-7.85101796190311e-04
2.81838293126442e+03,9.99063813740761e-01,-8.03386992610446e-04
2.88403150312658e+03,9.99063674104016e-01,-8.22097950615173e-04
2.95120922666635e+03,9.99063527890491e-01,-8.41244576364327e-04
3.01995172040198e+03,9.99063374789916e-01,-8.60837005974728e-04
3.09029543251356e+03,9.99063214482139e-01,-8.80885610806963e-04
3.16227766016835e+03,9.99063046626263e-01,-9.01401002900222e-04
3.23593656929625e+03,9.99062870865298e-01,-9.22394040506661e-04
3.31131121482588e+03,9.99062686829221e-01,-9.43875833747420e-04
3.38844156139199e+03,9.99062494127256e-01,-9.65857750429922e-04
3.46736850452528e+03,9.99062292354591e-01,-9.88351421936521e-04
3.54813389233572e+03,9.99062081082443e-01,-1.01136874930360e-03
3.63078054770097e+03,9.99061859863231e-01,-1.03492190940865e-03
3.71535229097168e+03,9.99061628232365e-01,-1.05902336128031e-03
3.80189396320557e+03,9.99061385699070e-01,-1.08368585260040e-03
3.89045144994276e+03,9.99061131750821e-01,-1.10892242627309e-03
3.98107170553493e+03,9.99060865848340e-01,-1.13474642721691e-03
4.07380277804108e+03,9.99060587433538e-01,-1.16117150924211e-03
4.16869383470331e+03,9.99060295917539e-01,-1.18821164211933e-03
4.26579518801588e+03,9.99059990683640e-01,-1.21588111883019e-03
4.36515832240161e+03,9.99059671087280e-01,-1.24419456286373e-03
4.46683592150958e+03,9.99059336456857e-01,-1.27316693578960e-03
4.57088189614870e+03,9.99058986081784e-01,-1.30281354495327e-03
4.67735141287193e+03,9.99058619228256e-01,-1.33315005133020e-03
4.78630092322633e+03,9.99058235118113e-01,-1.36419247754707e-03
4.89778819368441e+03,9.99057832942302e-01,-1.39595721611435e-03
5.01187233627267e+03,9.99057411855815e-01,-1.42846103774880e-03
5.12861383991359e+03,9.99056970965076e-01,-1.46172109998916e-03
5.24807460249767e+03,9.99056509348540e-01,-1.49575495587123e-03
5.37031796370247e+03,9.99056026030619e-01,-1.53058056290532e-03
5.49540873857618e+03,9.99055519993418e-01,-1.56621629216664e-03
5.62341325190343e+03,9.99054990172252e-01,-1.60268093758530e-03
5.75439937337150e+03,9.99054435451750e-01,-1.63999372543678e-03
5.88843655355582e+03,9.99053854667141e-01,-1.67817432403596e-03
6.02559586074351e+03,9.99053246596212e-01,-1.71724285363025e-03
6.16595001861475e+03,9.99052609960985e-01,-1.75721989647112e-03
6.30957344480186e+03,9.99051943425641e-01,-1.79812650712990e-03
6.45654229034648e+03,9.99051245589629e-01,-1.83998422299572e-03
6.60693448007588e+03,9.99050514989336e-01,-1.88281507493044e-03
6.76082975391974e+03,9.99049750092138e-01,-1.92664159828050e-03
6.91830970918928e+03,9.99048949294630e-01,-1.97148684394393e-03
7.07945784384129e+03,9.99048110919092e-01,-2.01737438975978e-03
7.24435960074981e+03,9.99047233210785e-01,-2.06432835204832e-03
7.41310241300908e+03,9.99046314334940e-01,-2.11237339739830e-03
7.58577575029174e+03,9.99045352366347e-01,-2.16153475477276e-03
7.76247116628682e+03,9.99044345295214e-01,-2.21183822763343e-03
7.94328234724272e+03,9.99043291021607e-01,-2.26331020645557e-03
8.12830516164089e+03,9.99042187342795e-01,-2.31597768139928e-03
8.31763771102661e+03,9.99041031957643e-01,-2.36986825526749e-03
8.51138038202366e+03,9.99039822459728e-01,-2.42501015663936e-03
8.70963589956070e+03,9.99038556329601e-01,-2.48143225326230e-03
8.91250938133734e+03,9.99037230936617e-01,-2.53916406560514e-03
9.12010839355898e+03,9.99035843525143e-01,-2.59823578072223e-03
9.33254300796979e+03,9.99034391216566e-01,-2.65867826639244e-03
9.54992586021424e+03,9.99032870995204e-01,-2.72052308529641e-03
9.77237220955798e+03,9.99031279714865e-01,-2.78380250967432e-03
9.99999999999987e+03,9.99029614082267e-01,-2.84854953593131e-03
1.02329299228074e+04,9.99027870655874e-01,-2.91479789971427e-03
1.04712854805089e+04,9.99026045830975e-01,-2.98258209112748e-03
1.07151930523759e+04,9.99024135850661e-01,-3.05193737000368e-03
1.09647819614317e+04,9.99022136783049e-01,-3.12289978167771e-03
1.12201845430195e+04,9.99020044512661e-01,-3.19550617280687e-03
1.14815362149687e+04,9.99017854746969e-01,-3.26979420734956e-03
1.17489755493951e+04,9.99015562996883e-01,-3.34580238287334e-03
1.20226443461740e+04,9.99013164570822e-01,-3.42357004697062e-03
1.23026877081237e+04,9.99010654566804e-01,-3.50313741391136e-03
1.25892541179415e+04,9.99008027869505e-01,-3.58454558144211e-03
1.28824955169312e+04,9.99005279126919e-01,-3.66783654778482e-03
1.31825673855639e+04,9.99002402752577e-01,-3.75305322877671e-03
1.34896288259164e+04,9.98999392917379e-01,-3.84023947520418e-03
1.38038426460287e+04,9.98996243529084e-01,-3.92944009017683e-03
1.41253754462274e+04,9.98992948226394e-01,-4.02070084681442e-03
1.44543977074591e+04,9.98989500369585e-01,-4.11406850594400e-03
1.47910838816819e+04,9.98985893033156e-01,-4.20959083375622e-03
1.51356124843619e+04,9.98982118984348e-01,-4.30731661984205e-03
1.54881661891246e+04,9.98978170675999e-01,-4.40729569525135e-03
1.58489319246109e+04,9.98974040237789e-01,-4.50957895027212e-03
1.62181009735891e+04,9.98969719455717e-01,-4.61421835279026e-03
1.65958690743754e+04,9.98965199770043e-01,-4.72126696615431e-03
1.69824365246172e+04,9.98960472247668e-01,-4.83077896752950e-03
1.73780082874935e+04,9.98955527576721e-01,-4.94280966581730e-03
1.77827941003890e+04,9.98950356062298e-01,-5.05741551974241e-03
1.81970085860996e+04,9.98944947586243e-01,-5.17465415593739e-03
1.86208713666284e+04,9.98939291618546e-01,-5.29458438681959e-03
1.90546071796322e+04,9.98933377182382e-01,-5.41726622843351e-03
1.94984459975802e+04,9.98927192853513e-01,-5.54276091808949e-03
1.99526231496885e+04,9.98920726735245e-01,-5.67113093204126e-03
2.04173794466950e+04,9.98913966450516e-01,-5.80244000264944e-03
2.08929613085401e+04,9.98906899111811e-01,-5.93675313581732e-03
2.13796208950220e+04,9.98899511318500e-01,-6.07413662768732e-03
2.18776162394952e+04,9.98891789139529e-01,-6.21465808146019e-03
2.23872113856831e+04,9.98883718085938e-01,-6.35838642384801e-03
2.29086765276774e+04,9.98875283103771e-01,-6.50539192107567e-03
2.34422881531989e+04,9.98866468551164e-01,-6.65574619495988e-03
2.39883291901946e+04,9.98857258190580e-01,-6.80952223788746e-03
2.45470891568500e+04,9.98847635161074e-01,-6.96679442842688e-03
2.51188643150954e+04,9.98837581965322e-01,-7.12763854593164e-03
2.57039578276883e+04,9.98827080458983e-01,-7.29213178467869e-03
2.63026799189534e+04,9.98816111823405e-01,-7.46035276824049e-03
2.69153480392688e+04,9.98804656564343e-01,-7.63238156269937e-03
2.75422870333813e+04,9.98792694481844e-01,-7.80829969015377e-03
2.81838293126441e+04,9.98780204662685e-01,-7.98819014129004e-03
2.88403150312656e+04,9.98767165465324e-01,-8.17213738816906e-03
2.95120922666634e+04,9.98753554510660e-01,-8.36022739578446e-03
3.01995172040197e+04,9.98739348662281e-01,-8.55254763455300e-03
3.09029543251354e+04,9.98724524006036e-01,-8.74918709168863e-03
3.16227766016833e+04,9.98709055872588e-01,-8.95023628181979e-03
3.23593656929623e+04,9.98692918786761e-01,-9.15578725947378e-03
3.31131121482586e+04,9.98676086491984e-01,-9.36593362904559e-03
3.38844156139197e+04,9.98658531914980e-01,-9.58077055693914e-03
3.46736850452526e+04,9.98640227191341e-01,-9.80039478214182e-03
3.54813389233570e+04,9.98621143638691e-01,-1.00249046283369e-02
3.63078054770096e+04,9.98601251758152e-01,-1.02544000160066e-02
3.71535229097167e+04,9.98580521255461e-01,-1.04889824747734e-02
3.80189396320555e+04,9.98558921009820e-01,-1.07287551573579e-02
3.89045144994275e+04,9.98536419112218e-01,-1.09738228536857e-02
3.98107170553491e+04,9.98512982848640e-01,-1.12242920070347e-02
4.07380277804107e+04,9.98488578723077e-01,-1.14802707313815e-02
4.16869383470329e+04,9.98463172464167e-01,-1.17418688303388e-02
4.26579518801586e+04,9.98436729046333e-01,-1.20091978189014e-02
4.36515832240159e+04,9.98409212695471e-01,-1.22823709471091e-02
4.46683592150956e+04,9.98380586928982e-01,-1.25615032272520e-02
4.57088189614868e+04,9.98350814561988e-01,-1.28467114635419e-02
4.67735141287191e+04,9.98319857741762e-01,-1.31381142862341e-02
4.78630092322631e+04,9.98287677979693e-01,-1.34358321902365e-02
4.89778819368439e+04,9.98254236172034e-01,-1.37399875772083e-02
5.01187233627264e+04,9.98219492647035e-01,-1.40507048043276e-02
5.12861383991357e+04,9.98183407195268e-01,-1.43681102381569e-02
5.24807460249764e+04,9.98145939107355e-01,-1.46923323143205e-02
5.37031796370244e+04,9.98107047217320e-01,-1.50235016054374e-02
5.49540873857616e+04,9.98066689942282e-01,-1.53617508952693e-02
5.62341325190340e+04,9.98024825333190e-01,-1.57072152611368e-02
5.75439937337148e+04,9.97981411099329e-01,-1.60600321657519e-02
5.88843655355580e+04,9.97936404673544e-01,-1.64203415570988e-02
6.02559586074348e+04,9.97889763239731e-01,-1.67882859788364e-02
6.16595001861472e+04,9.97841443776363e-01,-1.71640106904716e-02
6.30957344480183e+04,9.97791403104986e-01,-1.75476637975511e-02
6.45654229034645e+04,9.97739597902725e-01,-1.79393963949266e-02
6.60693448007586e+04,9.97685984755786e-01,-1.83393627187485e-02
6.76082975391971e+04,9.97630520172733e-01,-1.87477203121848e-02
6.91830970918925e+04,9.97573160599581e-01,-1.91646302018550e-02
7.07945784384127e+04,9.97513862441371e-01,-1.95902570866212e-02
7.24435960074979e+04,9.97452582051533e-01,-2.00247695379058e-02
7.41310241300906e+04,9.97389275730888e-01,-2.04683402124285e-02
7.58577575029172e+04,9.97323899705649e-01,-2.09211460751599e-02
7.76247116628679e+04,9.97256410084024e-01,-2.13833686351809e-02
7.94328234724269e+04,9.97186762822438e-01,-2.18551941899030e-02
8.12830516164086e+04,9.97114913649003e-01,-2.23368140803002e-02
8.31763771102658e+04,9.97040817980463e-01,-2.28284249551950e-02
8.51138038202363e+04,9.96964430834088e-01,-2.33302290428032e-02
8.70963589956067e+04,9.96885706693634e-01,-2.38424344285488e-02
8.91250938133731e+04,9.96804599369695e-01,-2.43652553399614e-02
9.12010839355895e+04,9.96721061839170e-01,-2.48989124334853e-02
9.33254300796976e+04,9.96635046058710e-01,-2.54436330845971e-02
9.54992586021420e+04,9.96546502747029e-01,-2.59996516788204e-02
9.77237220955795e+04,9.96455381156702e-01,-2.65672099000759e-02
9.99999999999984e+04,9.96361628808679e-01,-2.71465570178016e-02
1.02329299228074e+05,9.96265191204510e-01,-2.77379501668547e-02
1.04712854805088e+05,9.96166011524649e-01,-2.83416546221210e-02
1.07151930523759e+05,9.96064030276882e-01,-2.89579440631939e-02
1.09647819614317e+05,9.95959184950771e-01,-2.95871008269496e-02
1.12201845430195e+05,9.95851409621760e-01,-3.02294161488363e-02
1.14815362149686e+05,9.95740634539322e-01,-3.08851903884684e-02
1.17489755493951e+05,9.95626785706349e-01,-3.15547332367111e-02
1.20226443461739e+05,9.95509784413373e-01,-3.22383639078360e-02
1.23026877081236e+05,9.95389546774893e-01,-3.29364113077112e-02
1.25892541179415e+05,9.95265983227141e-01,-3.36492141836786e-02
1.28824955169311e+05,9.95138998024677e-01,-3.43771212504313e-02
1.31825673855639e+05,9.95008488706447e-01,-3.51204912926052e-02
1.34896288259163e+05,9.94874345559220e-01,-3.58796932425507e-02
1.38038426460286e+05,9.94736451063354e-01,-3.66551062348461e-02
1.41253754462273e+05,9.94594679326335e-01,-3.74471196329966e-02
1.44543977074590e+05,9.94448895511596e-01,-3.82561330333952e-02
1.47910838816818e+05,9.94298955244811e-01,-3.90825562412195e-02
1.51356124843618e+05,9.94144704045324e-01,-3.99268092231790e-02
1.54881661891246e+05,9.93985976703722e-01,-4.07893220341714e-02
1.58489319246109e+05,9.93822596704433e-01,-4.16705347197919e-02
1.62181009735890e+05,9.93654375610384e-01,-4.25708971957372e-02
1.65958690743753e+05,9.93481112464293e-01,-4.34908691022719e-02
1.69824365246172e+05,9.93302593176601e-01,-4.44309196384959e-02
1.73780082874935e+05,9.93118589913420e-01,-4.53915273729990e-02
1.77827941003889e+05,9.92928860485940e-01,-4.63731800357518e-02
1.81970085860995e+05,9.92733147745640e-01,-4.73763742870990e-02
1.86208713666284e+05,9.92531178951079e-01,-4.84016154686594e-02
1.90546071796322e+05,9.92322665161554e-01,-4.94494173356937e-02
1.94984459975801e+05,9.92107300614683e-01,-5.05203017690940e-02
1.99526231496885e+05,9.91884762093205e-01,-5.16147984701933e-02
2.04173794466949e+05,9.91654708302138e-01,-5.27334446358252e-02
2.08929613085400e+05,9.91416779218464e-01,-5.38767846153190e-02
2.13796208950220e+05,9.91170595462354e-01,-5.50453695492175e-02
2.18776162394952e+05,9.90915757635920e-01,-5.62397569864140e-02
2.23872113856830e+05,9.90651845647549e-01,-5.74605104805942e-02
2.29086765276773e+05,9.90378418061810e-01,-5.87081991677887e-02
2.34422881531988e+05,9.90095011390265e-01,-5.99833973158784e-02
2.39883291901945e+05,9.89801139405301e-01,-6.12866838542437e-02
2.45470891568499e+05,9.89496292412431e-01,-6.26186418722522e-02
2.51188643150954e+05,9.89179936526145e-01,-6.39798580902170e-02
2.57039578276882e+05,9.88851512918990e-01,-6.53709222989164e-02
2.63026799189534e+05,9.88510437055728e-01,-6.67924267645777e-02
2.69153480392687e+05,9.88156097911311e-01,-6.82449655960074e-02
2.75422870333812e+05,9.87787857161129e-01,-6.97291340703608e-02
2.81838293126440e+05,9.87405048369447e-01,-7.12455279159171e-02
2.88403150312656e+05,9.87006976139396e-01,-7.27947425467271e-02
2.95120922666633e+05,9.86592915264628e-01,-7.43773722443234e-02
3.01995172040196e+05,9.86162109837284e-01,-7.59940092824694e-02
3.09029543251354e+05,9.85713772376785e-01,-7.76452429956351e-02
3.16227766016832e+05,9.85247082909041e-01,-7.93316587787407e-02
3.23593656929623e+05,9.84761188045997e-01,-8.10538370172449e-02
3.31131121482585e+05,9.84255200059219e-01,-8.28123519459971e-02
3.38844156139197e+05,9.83728195929807e-01,-8.46077704235806e-02
3.46736850452526e+05,9.83179216405395e-01,-8.64406506273954e-02
3.54813389233569e+05,9.82607265060496e-01,-8.83115406573109e-02
3.63078054770095e+05,9.82011307327504e-01,-9.02209770403653e-02
3.71535229097166e+05,9.81390269577261e-01,-9.21694831429057e-02
3.80189396320555e+05,9.80743038172489e-01,-9.41575674702360e-02
3.89045144994274e+05,9.80068458560416e-01,-9.61857218589926e-02
3.98107170553490e+05,9.79365334386474e-01,-9.82544195525012e-02
4.07380277804106e+05,9.78632426615394e-01,-1.00364113154065e-01
4.16869383470328e+05,9.77868452727868e-01,-1.02515232456107e-01
4.26579518801585e+05,9.77072085934362e-01,-1.04708182134562e-01
4.36515832240158e+05,9.76241954443704e-01,-1.06943339310204e-01
4.46683592150955e+05,9.75376640823619e-01,-1.09221050969168e-01
4.57088189614867e+05,9.74474681395311e-01,-1.11541631234108e-01
4.67735141287190e+05,9.73534565756708e-01,-1.13905358496648e-01
4.78630092322630e+05,9.72554736371624e-01,-1.16312472388827e-01
4.89778819368438e+05,9.71533588290046e-01,-1.18763170605465e-01
5.01187233627263e+05,9.70469469000529e-01,-1.21257605571301e-01
5.12861383991356e+05,9.69360678391431e-01,-1.23795880945818e-01
5.24807460249763e+05,9.68205468914226e-01,-1.26378047978354e-01
5.37031796370243e+05,9.67002045893290e-01,-1.29004101698352e-01
5.49540873857615e+05,9.65748568035363e-01,-1.31673976958058e-01
5.62341325190339e+05,9.64443148151798e-01,-1.34387544317286e-01
5.75439937337147e+05,9.63083854112551e-01,-1.37144605788240e-01
5.88843655355579e+05,9.61668710055400e-01,-1.39944890431034e-01
6.02559586074347e+05,9.60195697856302e-01,-1.42788049821297e-01
6.16595001861471e+05,9.58662758920570e-01,-1.45673653399138e-01
6.30957344480182e+05,9.57067796257209e-01,-1.48601183693981e-01
6.45654229034644e+05,9.55408676922830e-01,-1.51570031466676e-01
6.60693448007584e+05,9.53683234820675e-01,-1.54579490758620e-01
6.76082975391970e+05,9.51889273892245e-01,-1.57628753896194e-01
6.91830970918924e+05,9.50024571693256e-01,-1.60716906433353e-01
7.07945784384125e+05,9.48086883453538e-01,-1.63842922103792e-01
7.24435960074977e+05,9.46073946551588e-01,-1.67005657774010e-01
7.41310241300904e+05,9.43983485476166e-01,-1.70203848442549e-01
7.58577575029170e+05,9.41813217304678e-01,-1.73436102327156e-01
7.76247116628678e+05,9.39560857678970e-01,-1.76700896068693e-01
7.94328234724267e+05,9.37224127318929e-01,-1.79996570092482e-01
8.12830516164085e+05,9.34800759092100e-01,-1.83321324182574e-01
8.31763771102656e+05,9.32288505630257e-01,-1.86673213306172e-01
8.51138038202361e+05,9.29685147523256e-01,-1.90050143759768e-01
8.70963589956065e+05,9.26988502075551e-01,-1.93449869664972e-01
8.91250938133729e+05,9.24196432632551e-01,-1.96869989901299e-01
9.12010839355893e+05,9.21306858470196e-01,-2.00307945525855e-01
9.33254300796974e+05,9.18317765238155e-01,-2.03761017736168e-01
9.54992586021419e+05,9.15227215930138e-01,-2.07226326469282e-01
9.77237220955793e+05,9.12033362365186e-01,-2.10700829679491e-01
9.99999999999982e+05,9.08734457129955e-01,-2.14181323369364e-01
1.02329299228074e+06,9.05328865981187e-01,-2.17664442480044e-01
1.04712854805088e+06,9.01815080598995e-01,-2.21146662643042e-01
1.07151930523759e+06,8.98191731685794e-01,-2.24624302932058e-01
1.09647819614316e+06,8.94457602318377e-01,-2.28093529634799e-01
1.12201845430194e+06,8.90611641473442e-01,-2.31550361132746e-01
1.14815362149686e+06,8.86652977652498e-01,-2.34990673923764e-01
1.17489755493951e+06,8.82580932506056e-01,-2.38410209877981e-01
1.20226443461739e+06,8.78395034346659e-01,-2.41804584714299e-01
1.23026877081236e+06,8.74095031433607e-01,-2.45169297801802e-01
1.25892541179414e+06,8.69680904926978e-01,-2.48499743250155e-01
1.28824955169311e+06,8.65152881350657e-01,-2.51791222338430e-01
1.31825673855638e+06,8.60511444467172e-01,-2.55038957287550e-01
1.34896288259163e+06,8.55757346372750e-01,-2.58238106329177e-01
1.38038426460286e+06,8.50891617718917e-01,-2.61383780086414e-01
1.41253754462273e+06,8.45915576876412e-01,-2.64471059189132e-01
1.44543977074590e+06,8.40830837907292e-01,-2.67495013077397e-01
1.47910838816818e+06,8.35639317215668e-01,-2.70450719910819e-01
1.51356124843618e+06,8.30343238696937e-01,-2.73333287484346e-01
1.54881661891245e+06,8.24945137289019e-01,-2.76137875037821e-01
1.58489319246108e+06,8.19447860788305e-01,-2.78859715819320e-01
1.62181009735890e+06,8.13854569806098e-01,-2.81494140257558e-01
1.65958690743753e+06,8.08168735776634e-01,-2.84036599571277e-01
1.69824365246171e+06,8.02394136930338e-01,-2.86482689628732e-01
1.73780082874934e+06,7.96534852187141e-01,-2.88828174877850e-01
1.77827941003889e+06,7.90595252862381e-01,-2.91069012109756e-01
1.81970085860995e+06,7.84579992275989e-01,-2.93201373870500e-01
1.86208713666283e+06,7.78493993151311e-01,-2.95221671274062e-01
1.90546071796321e+06,7.72342432917730e-01,-2.97126576012045e-01
1.94984459975801e+06,7.66130726934726e-01,-2.98913041316252e-01
1.99526231496884e+06,7.59864509730818e-01,-3.00578321660158e-01
2.04173794466949e+06,7.53549614359153e-01,-3.02119990998032e-01
2.08929613085400e+06,7.47192050035830e-01,-3.03535959312192e-01
2.13796208950219e+06,7.40797978168099e-01,-3.04824487311406e-01
2.18776162394951e+06,7.34373687010395e-01,-3.05984199076691e-01
2.23872113856830e+06,7.27925565118965e-01,-3.07014092544634e-01
2.29086765276773e+06,7.21460073831199e-01,-3.07913547653820e-01
2.34422881531988e+06,7.14983719017456e-01,-3.08682332099634e-01
2.39883291901944e+06,7.08503022344135e-01,-3.09320604593816e-01
2.45470891568498e+06,7.02024492318601e-01,-3.09828915607577e-01
2.51188643150953e+06,6.95554595334941e-01,-3.10208205553703e-01
2.57039578276881e+06,6.89099727036886e-01,-3.10459800475840e-01
2.63026799189533e+06,6.82666184218220e-01,-3.10585405231270e-01
2.69153480392686e+06,6.76260137493422e-01,-3.10587094290519e-01
2.75422870333811e+06,6.69887605029686e-01,-3.10467300240823e-01
2.81838293126440e+06,6.63554427490523e-01,-3.10228800108417e-01
2.88403150312655e+06,6.57266244455412e-01,-3.09874699684295e-01
2.95120922666633e+06,6.51028472461061e-01,-3.09408416000816e-01
3.01995172040196e+06,6.44846284828041e-01,-3.08833658151735e-01
3.09029543251353e+06,6.38724593416854e-01,-3.08154406683804e-01
3.16227766016832e+06,6.32668032412556e-01,-3.07374891738372e-01
3.23593656929622e+06,6.26680944231068e-01,-3.06499570207427e-01
3.31131121482585e+06,6.20767367585405e-01,-3.05533102092972e-01
3.38844156139196e+06,6.14931027756259e-01,-3.04480326325872e-01
3.46736850452525e+06,6.09175329062485e-01,-3.03346236241069e-01
3.54813389233568e+06,6.03503349516131e-01,-3.02135954961148e-01
3.63078054770094e+06,5.97917837615449e-01,-3.00854710861416e-01
3.71535229097165e+06,5.92421211205608e-01,-2.99507813337100e-01
3.80189396320554e+06,5.87015558345388e-01,-2.98100629058742e-01
3.89045144994273e+06,5.81702640053536e-01,-2.96638558869311e-01
3.98107170553489e+06,5.76483894843829e-01,-2.95127015498589e-01
4.07380277804105e+06,5.71360444912615e-01,-2.93571402215950e-01
4.16869383470327e+06,5.66333103852328e-01,-2.91977092553412e-01
4.26579518801584e+06,5.61402385743568e-01,-2.90349411198192e-01
4.36515832240157e+06,5.56568515487678e-01,-2.88693616132764e-01
4.46683592150954e+06,5.51831440225503e-01,-2.87014882106087e-01
4.57088189614866e+06,5.47190841712159e-01,-2.85318285479156e-01
4.67735141287189e+06,5.42646149475034e-01,-2.83608790476402e-01
4.78630092322629e+06,5.38196554633674e-01,-2.81891236879983e-01
4.89778819368436e+06,5.33841024237422e-01,-2.80170329158351e-01
5.01187233627262e+06,5.29578315982601e-01,-2.78450627045198e-01
5.12861383991355e+06,5.25406993184110e-01,-2.76736537536251e-01
5.24807460249762e+06,5.21325439886641e-01,-2.75032308292119e-01
5.37031796370242e+06,5.17331875996655e-01,-2.73342022419459e-01
5.49540873857613e+06,5.13424372325338e-01,-2.71669594572413e-01
5.62341325190338e+06,5.09600865458753e-01,-2.70018768355406e-01
5.75439937337145e+06,5.05859172349037e-01,-2.68393114962440e-01
5.88843655355577e+06,5.02197004554765e-01,-2.66796033004701e-01
6.02559586074345e+06,4.98611982047719e-01,-2.65230749474154e-01
6.16595001861470e+06,4.95101646524701e-01,-2.63700321790668e-01
6.30957344480180e+06,4.91663474145604e-01,-2.62207640860024e-01
6.45654229034642e+06,4.88294887662053e-01,-2.60755435106574e-01
6.60693448007582e+06,4.84993267865117e-01,-2.59346275412249e-01
6.76082975391968e+06,4.81755964311844e-01,-2.57982580900412e-01
6.91830970918922e+06,4.78580305290604e-01,-2.56666625529115e-01
7.07945784384123e+06,4.75463606971868e-01,-2.55400545415713e-01
7.24435960074975e+06,4.72403181717926e-01,-2.54186346860042e-01
7.41310241300902e+06,4.69396345507555e-01,-2.53025915007737e-01
7.58577575029168e+06,4.66440424441949e-01,-2.51921023108826e-01
7.76247116628676e+06,4.63532760295107e-01,-2.50873342320792e-01
7.94328234724265e+06,4.60670715078567e-01,-2.49884452024120e-01
8.12830516164082e+06,4.57851674570398e-01,-2.48955850587731e-01
8.31763771102654e+06,4.55073050785586e-01,-2.48088966567522e-01
8.51138038202359e+06,4.52332283336909e-01,-2.47285170286894e-01
8.70963589956062e+06,4.49626839638646e-01,-2.46545785760415e-01
8.91250938133727e+06,4.46954213912122e-01,-2.45872102941278e-01
9.12010839355890e+06,4.44311924924365e-01,-2.45265390240230e-01
9.33254300796971e+06,4.41697512405460e-01,-2.44726907299970e-01
9.54992586021416e+06,4.39108532060893e-01,-2.44257917981184e-01
9.77237220955790e+06,4.36542549101600e-01,-2.43859703542904e-01
9.99999999999979e+06,4.33997130179255e-01,-2.43533575958460e-01
1.02329299228073e+07,4.31469833623458e-01,-2.43280891366491e-01
1.04712854805088e+07,4.28958197830307e-01,-2.43103063583555e-01
1.07151930523758e+07,4.26459727646698e-01,-2.43001577644896e-01
1.09647819614316e+07,4.23971878559545e-01,-2.42978003317389e-01
1.12201845430194e+07,4.21492038466939e-01,-2.43034008505357e-01
1.14815362149686e+07,4.19017506767961e-01,-2.43171372453701e-01
1.17489755493950e+07,4.16545470467125e-01,-2.43391998628240e-01
1.20226443461739e+07,4.14072976938010e-01,-2.43697927112723e-01
1.23026877081236e+07,4.11596902929807e-01,-2.44091346307192e-01
1.25892541179414e+07,4.09113919339261e-01,-2.44574603642690e-01
1.28824955169311e+07,4.06620451204150e-01,-2.45150214972904e-01
1.31825673855638e+07,4.04112632284262e-01,-2.45820872128489e-01
1.34896288259162e+07,4.01586253528867e-01,-2.46589448038159e-01
1.38038426460286e+07,3.99036704642097e-01,-2.47458998612485e-01
1.41253754462272e+07,3.96458907874389e-01,-2.48432760339501e-01
1.44543977074590e+07,3.93847243109344e-01,-2.49514142289938e-01
1.47910838816818e+07,3.91195463255206e-01,-2.50706710809211e-01
1.51356124843618e+07,3.88496598956869e-01,-2.52014164791388e-01
1.54881661891245e+07,3.85742851675534e-01,-2.53440298805529e-01
1.58489319246108e+07,3.82925474337776e-01,-2.54988950720105e-01
1.62181009735889e+07,3.80034639022473e-01,-2.56663929641984e-01
1.65958690743752e+07,3.77059291619520e-01,-2.58468919011072e-01
1.69824365246171e+07,3.73986994138683e-01,-2.60407348615878e-01
1.73780082874934e+07,3.70803756447376e-01,-2.62482228001030e-01
1.77827941003888e+07,3.67493860835899e-01,-2.64695932417145e-01
1.81970085860994e+07,3.64039685079966e-01,-2.67049931068787e-01
1.86208713666283e+07,3.60421532796174e-01,-2.69544446152436e-01
1.90546071796321e+07,3.56617484072330e-01,-2.72178030304395e-01
1.94984459975800e+07,3.52603284809077e-01,-2.74947049889356e-01
1.99526231496884e+07,3.48352300087823e-01,-2.77845062673655e-01
2.04173794466948e+07,3.43835565233694e-01,-2.80862081612982e-01
2.08929613085399e+07,3.39021977857781e-01,-2.83983722660934e-01
2.13796208950219e+07,3.33878684439472e-01,-2.87190245101141e-01
2.18776162394950e+07,3.28371724641112e-01,-2.90455509181871e-01
2.23872113856829e+07,3.22467003356482e-01,-2.93745899249810e-01
2.29086765276772e+07,3.16131661008115e-01,-2.97019291918458e-01
2.34422881531987e+07,3.09335902105776e-01,-3.00224187660260e-01
2.39883291901944e+07,3.02055314634283e-01,-3.03299167849126e-01
2.45470891568498e+07,2.94273662376216e-01,-3.06172881450915e-01
2.51188643150952e+07,2.85986054314271e-01,-3.08764795395097e-01
2.57039578276881e+07,2.77202290081513e-01,-3.10986944462641e-01
2.63026799189532e+07,2.67950056872612e-01,-3.12746871636096e-01
2.69153480392686e+07,2.58277532380572e-01,-3.13951841133956e-01
2.75422870333811e+07,2.48254864344433e-01,-3.14514226536340e-01
2.81838293126439e+07,2.37973992931770e-01,-3.14357737598014e-01
2.88403150312654e+07,2.27546396592254e-01,-3.13423890907093e-01
2.95120922666632e+07,2.17098592194678e-01,-3.11677917164677e-01
3.01995172040195e+07,2.06765582767582e-01,-3.09113209152739e-01
3.09029543251352e+07,1.96682849551290e-01,-3.05753511352359e-01
3.16227766016831e+07,1.86977823132578e-01,-3.01652349308346e-01
3.23593656929621e+07,1.77761934834435e-01,-2.96889642803364e-01
3.31131121482584e+07,1.69124281170155e-01,-2.91565932295111e-01
3.38844156139195e+07,1.61127641232038e-01,-2.85795042598069e-01
3.46736850452524e+07,1.53807151966114e-01,-2.79696209638564e-01
3.54813389233568e+07,1.47171491529446e-01,-2.73386669214755e-01
3.63078054770093e+07,1.41206060444105e-01,-2.66975487669140e-01
3.71535229097164e+07,1.35877451982563e-01,-2.60559088956268e-01
3.80189396320553e+07,1.31138476009957e-01,-2.54218597226309e-01
3.89045144994272e+07,1.26933106153767e-01,-2.48018843124225e-01
3.98107170553488e+07,1.23200898707651e-01,-2.42008711937225e-01
4.07380277804104e+07,1.19880625442813e-01,-2.36222443309988e-01
4.16869383470326e+07,1.16913030864024e-01,-2.30681503236554e-01
4.26579518801583e+07,1.14242747437619e-01,-2.25396708803341e-01
4.36515832240156e+07,1.11819476992413e-01,-2.20370366421622e-01
4.46683592150953e+07,1.09598580257212e-01,-2.15598264589781e-01
4.57088189614865e+07,1.07541220899475e-01,-2.11071430814145e-01
4.67735141287188e+07,1.05614196972738e-01,-2.06777614519540e-01
4.78630092322628e+07,1.03789570577238e-01,-2.02702493653103e-01
4.89778819368435e+07,1.02044182184409e-01,-1.98830624687713e-01
5.01187233627261e+07,1.00359113268664e-01,-1.95146167214057e-01
5.12861383991353e+07,9.87191414872735e-02,-1.91633418496870e-01
5.24807460249761e+07,9.71122172277703e-02,-1.88277192946942e-01
5.37031796370241e+07,9.55289787191934e-02,-1.85063078442643e-01
5.49540873857612e+07,9.39623145574446e-02,-1.81977597209938e-01
5.62341325190336e+07,9.24069767788734e-02,-1.79008294422736e-01
5.75439937337144e+07,9.08592439002221e-02,-1.76143773344826e-01
5.88843655355576e+07,8.93166310904952e-02,-1.73373691956324e-01
6.02559586074344e+07,8.77776434222087e-02,-1.70688732693647e-01
6.16595001861468e+07,8.62415676124333e-02,-1.68080554204051e-01
6.30957344480179e+07,8.47082975917898e-02,-1.65541731803810e-01
6.45654229034641e+07,8.31781894243772e-02,-1.63065691591117e-01
6.60693448007581e+07,8.16519414476654e-02,-1.60646641809760e-01
6.76082975391967e+07,8.01304959186052e-02,-1.58279504016003e-01
6.91830970918921e+07,7.86149588830861e-02,-1.55959845820627e-01
7.07945784384122e+07,7.71065354132344e-02,-1.53683816384547e-01
7.24435960074974e+07,7.56064777481542e-02,-1.51448085415848e-01
7.41310241300901e+07,7.41160442311191e-02,-1.49249786097639e-01
7.58577575029167e+07,7.26364672509184e-02,-1.47086462149498e-01
7.76247116628674e+07,7.11689286690041e-02,-1.44956019065363e-01
7.94328234724264e+07,6.97145414509373e-02,-1.42856679460370e-01
8.12830516164081e+07,6.82743364225126e-02,-1.40786942385985e-01
8.31763771102652e+07,6.68492532435305e-02,-1.38745546425397e-01
8.51138038202357e+07,6.54401348360166e-02,-1.36731436354936e-01
8.70963589956061e+07,6.40477246275064e-02,-1.34743733142938e-01
8.91250938133725e+07,6.26726660725601e-02,-1.32781707053474e-01
9.12010839355889e+07,6.13155040014736e-02,-1.30844753625974e-01
9.33254300796970e+07,5.99766874198108e-02,-1.28932372306920e-01
9.54992586021414e+07,5.86565734405262e-02,-1.27044147521766e-01
9.77237220955788e+07,5.73554320842145e-02,-1.25179731984706e-01
9.99999999999977e+07,5.60734517249165e-02,-1.23338832056582e-01
1.02329299228073e+08,5.48107449944774e-02,-1.21521194974458e-01
1.04712854805088e+08,5.35673549902094e-02,-1.19726597787021e-01
1.07151930523758e+08,5.23432616549617e-02,-1.17954837843260e-01
1.09647819614316e+08,5.11383882212712e-02,-1.16205724691996e-01
1.12201845430194e+08,4.99526076287603e-02,-1.14479073261179e-01
1.14815362149686e+08,4.87857488401377e-02,-1.12774698195085e-01
1.17489755493950e+08,4.76376029929684e-02,-1.11092409237714e-01
1.20226443461738e+08,4.65079293376085e-02,-1.09432007557410e-01
1.23026877081235e+08,4.53964609185430e-02,-1.07793282917681e-01
1.25892541179414e+08,4.43029099670345e-02,-1.06176011604051e-01
1.28824955169310e+08,4.32269729777891e-02,-1.04579955025105e-01
1.31825673855638e+08,4.21683354498408e-02,-1.03004858910573e-01
1.34896288259162e+08,4.11266762764795e-02,-1.01450453035125e-01
1.38038426460285e+08,4.01016717732339e-02,-9.99164514018076e-02
1.41253754462272e+08,3.90929993381580e-02,-9.84025528225793e-02
1.44543977074589e+08,3.81003407406792e-02,-9.69084418388098e-02
1.47910838816817e+08,3.71233850397581e-02,-9.54337899274072e-02
1.51356124843617e+08,3.61618311347318e-02,-9.39782569421430e-02
1.54881661891244e+08,3.52153899540415e-02,-9.25414927435756e-02
1.58489319246108e+08,3.42837862911726e-02,-9.11231389731136e-02
1.62181009735889e+08,3.33667602976062e-02,-8.97228309309277e-02
1.65958690743752e+08,3.24640686459970e-02,-8.83401995196124e-02
1.69824365246170e+08,3.15754853780735e-02,-8.69748732187261e-02
1.73780082874933e+08,3.07008024537717e-02,-8.56264800580979e-02
1.77827941003888e+08,2.98398300195502e-02,-8.42946495607376e-02
1.81970085860994e+08,2.89923964155016e-02,-8.29790146288662e-02
1.86208713666282e+08,2.81583479417391e-02,-8.16792133496586e-02
1.90546071796320e+08,2.73375484060128e-02,-8.03948906999574e-02
1.94984459975800e+08,2.65298784749425e-02,-7.91257001321838e-02
1.99526231496883e+08,2.57352348521791e-02,-7.78713050265128e-02
2.04173794466948e+08,2.49535293067405e-02,-7.66313799973415e-02
2.08929613085399e+08,2.41846875753310e-02,-7.54056120446589e-02
2.13796208950218e+08,2.34286481619605e-02,-7.41937015439390e-02
2.18776162394950e+08,2.26853610579625e-02,-7.29953630706537e-02
2.23872113856829e+08,2.19547864048444e-02,-7.18103260581102e-02
2.29086765276772e+08,2.12368931213470e-02,-7.06383352898751e-02
2.34422881531987e+08,2.05316575151911e-02,-6.94791512300968e-02
2.39883291901943e+08,1.98390618987744e-02,-6.83325501971360e-02
2.45470891568497e+08,1.91590932261454e-02,-6.71983243879460e-02
2.51188643150952e+08,1.84917417674937e-02,-6.60762817620429e-02
2.57039578276880e+08,1.78369998352223e-02,-6.49662457954218e-02
2.63026799189532e+08,1.71948605740683e-02,-6.38680551158383e-02
2.69153480392685e+08,1.65653168257581e-02,-6.27815630317500e-02
2.75422870333810e+08,1.59483600767257e-02,-6.17066369678556e-02
2.81838293126438e+08,1.53439794956035e-02,-6.06431578204461e-02
2.88403150312654e+08,1.47521610652768e-02,-5.95910192459779e-02
2.95120922666631e+08,1.41728868125307e-02,-5.85501268961045e-02
3.01995172040194e+08,1.36061341366100e-02,-5.75203976121115e-02
3.09029543251351e+08,1.30518752364851e-02,-5.65017585911688e-02
3.16227766016830e+08,1.25100766352290e-02,-5.54941465361364e-02
3.23593656929620e+08,1.19806987985492e-02,-5.44975067998738e-02
3.31131121482583e+08,1.14636958435068e-02,-5.35117925340846e-02
3.38844156139194e+08,1.09590153325390e-02,-5.25369638516935e-02
3.46736850452523e+08,1.04665981470532e-02,-5.15729870107648e-02
3.54813389233567e+08,9.98637843449950e-03,-5.06198336267896e-02
3.63078054770092e+08,9.51828362205213e-03,-4.96774799192372e-02
3.71535229097163e+08,9.06223449024415e-03,-4.87459059970035e-02
3.80189396320552e+08,8.61814529928664e-03,-4.78250951865581e-02
3.89045144994271e+08,8.18592396127199e-03,-4.69150334054258e-02
3.98107170553487e+08,7.76547225119116e-03,-4.60157085828858e-02
4.07380277804103e+08,7.35668605026248e-03,-4.51271101287783e-02
4.16869383470325e+08,6.95945561507012e-03,-4.42492284506968e-02
4.26579518801582e+08,6.57366586662869e-03,-4.33820545190378e-02
4.36515832240155e+08,6.19919669378225e-03,-4.25255794788797e-02
4.46683592150952e+08,5.83592326575186e-03,-4.16797943071415e-02
4.57088189614864e+08,5.48371634932380e-03,-4.08446895130297e-02
4.67735141287186e+08,5.14244262639334e-03,-4.00202548794847e-02
4.78630092322626e+08,4.81196500833567e-03,-3.92064792430374e-02
4.89778819368434e+08,4.49214294388371e-03,-3.84033503093496e-02
5.01187233627260e+08,4.18283271792207e-03,-3.76108545015032e-02
5.12861383991352e+08,3.88388773884299e-03,-3.68289768380919e-02
5.24807460249759e+08,3.59515881264654e-03,-3.60577008381147e-02
5.37031796370239e+08,3.31649440230690e-03,-3.52970084496706e-02
5.49540873857610e+08,3.04774087134827e-03,-3.45468799995150e-02
5.62341325190335e+08,2.78874271083215e-03,-3.38072941606102e-02
5.75439937337142e+08,2.53934274935064e-03,-3.30782279348944e-02
5.88843655355574e+08,2.29938234586370e-03,-3.23596566486128e-02
6.02559586074342e+08,2.06870156544470e-03,-3.16515539577042e-02
6.16595001861466e+08,1.84713933829949e-03,-3.09538918608642e-02
6.30957344480177e+08,1.63453360258509e-03,-3.02666407180682e-02
6.45654229034639e+08,1.43072143175144e-03,-2.95897692725198e-02
6.60693448007579e+08,1.23553914727170e-03,-2.89232446741513e-02
6.76082975391964e+08,1.04882241782873e-03,-2.82670325029821e-02
6.91830970918918e+08,8.70406346063210e-04,-2.76210967908425e-02
7.07945784384120e+08,7.00125544170105e-04,-2.69854000401387e-02
7.24435960074971e+08,5.37814199653379e-04,-2.63599032385471e-02
7.41310241300898e+08,3.83306132658314e-04,-2.57445658687037e-02
7.58577575029164e+08,2.36434846304562e-04,-2.51393459121662e-02
7.76247116628671e+08,9.70335714893904e-05,-2.45441998471065e-02
7.94328234724261e+08,-3.50646923561367e-05,-2.39590826393909e-02
8.12830516164078e+08,-1.60027139122991e-04,-2.33839477268991e-02
8.31763771102649e+08,-2.78021119062883e-04,-2.28187469971046e-02
8.51138038202354e+08,-3.89214101636722e-04,-2.22634307581283e-02
8.70963589956058e+08,-4.93773636894681e-04,-2.17179477036393e-02
8.91250938133722e+08,-5.91867314171955e-04,-2.11822448721356e-02
9.12010839355886e+08,-6.83662717002601e-04,-2.06562676012755e-02
9.33254300796966e+08,-7.69327373287623e-04,-2.01399594780743e-02
9.54992586021411e+08,-8.49028699858889e-04,-1.96332622858761e-02
9.77237220955785e+08,-9.22933940757803e-04,-1.91361159491156e-02
9.99999999999973e+08,-9.91210098699356e-04,-1.86484584769619e-02
1.02329299228073e+09,-1.05402385933062e-03,-1.81702259069754e-02
1.04712854805087e+09,-1.11154150809657e-03,-1.77013522499590e-02
1.07151930523758e+09,-1.16392883967337e-03,-1.72417694371810e-02
1.09647819614316e+09,-1.21135106011469e-03,-1.67914072711374e-02
1.12201845430193e+09,-1.25397268200047e-03,-1.63501933809866e-02
1.14815362149685e+09,-1.29195741305971e-03,-1.59180531837285e-02
1.17489755493950e+09,-1.32546803887786e-03,-1.54949098521243e-02
1.20226443461738e+09,-1.35466630041657e-03,-1.50806842902477e-02
1.23026877081235e+09,-1.37971276722585e-03,-1.46752951174518e-02
1.25892541179413e+09,-1.40076670730212e-03,-1.42786586613948e-02
1.28824955169310e+09,-1.41798595463266e-03,-1.38906889606294e-02
1.31825673855637e+09,-1.43152677553944e-03,-1.35112977771057e-02
1.34896288259162e+09,-1.44154373494244e-03,-1.31403946187788e-02
1.38038426460285e+09,-1.44818956370211e-03,-1.27778867723476e-02
1.41253754462272e+09,-1.45161502816589e-03,-1.24236793459943e-02
1.44543977074589e+09,-1.45196880302084e-03,-1.20776753218383e-02
1.47910838816817e+09,-1.44939734848373e-03,-1.17397756176671e-02
1.51356124843617e+09,-1.44404479278638e-03,-1.14098791573780e-02
1.54881661891244e+09,-1.43605282081427e-03,-1.10878829494393e-02
1.58489319246107e+09,-1.42556056963681e-03,-1.07736821725797e-02
1.62181009735889e+09,-1.41270453154226e-03,-1.04671702678366e-02
1.65958690743751e+09,-1.39761846505535e-03,-1.01682390360263e-02
1.69824365246170e+09,-1.38043331426255e-03,-9.87677873967046e-03
1.73780082874933e+09,-1.36127713664316e-03,-9.59267820839349e-03
1.77827941003887e+09,-1.34027503943864e-03,-9.31582494681922e-03
1.81970085860993e+09,-1.31754912447766e-03,-9.04610524402571e-03
1.86208713666282e+09,-1.29321844123123e-03,-8.78340428366692e-03
1.90546071796319e+09,-1.26739894776717e-03,-8.52760625394583e-03
1.94984459975799e+09,-1.24020347917198e-03,-8.27859445670661e-03
1.99526231496882e+09,-1.21174172292370e-03,-8.03625141501325e-03
2.04173794466947e+09,-1.18212020064058e-03,-7.80045897869214e-03
2.08929613085398e+09,-1.15144225559051e-03,-7.57109842743038e-03
2.13796208950217e+09,-1.11980804531975e-03,-7.34805057113738e-03
2.18776162394949e+09,-1.08731453876383e-03,-7.13119584739343e-03
2.23872113856828e+09,-1.05405551721971e-03,-6.92041441591731e-03
2.29086765276771e+09,-1.02012157859635e-03,-6.71558625009153e-03
2.34422881531986e+09,-9.85600144411078e-04,-6.51659122566786e-03
2.39883291901942e+09,-9.50575469065780e-04,-6.32330920686082e-03
2.45470891568496e+09,-9.15128651015760e-04,-6.13562013009475e-03
2.51188643150951e+09,-8.79337645522162e-04,-5.95340408571778e-03
2.57039578276879e+09,-8.43277278769705e-04,-5.77654139802705e-03
2.63026799189531e+09,-8.07019263222197e-04,-5.60491270395884e-03
2.69153480392684e+09,-7.70632214170172e-04,-5.43839903079540e-03
2.75422870333809e+09,-7.34181667512933e-04,-5.27688187321931e-03
2.81838293126437e+09,-6.97730098886015e-04,-5.12024327001240e-03
2.88403150312652e+09,-6.61336944316459e-04,-4.96836588064975e-03
2.95120922666630e+09,-6.25058622637022e-04,-4.82113306198295e-03
3.01995172040193e+09,-5.88948559935790e-04,-4.67842894514394e-03
3.09029543251350e+09,-5.53057216343016e-04,-4.54013851272909e-03
3.16227766016829e+09,-5.17432115473470e-04,-4.40614767625462e-03
3.23593656929619e+09,-4.82117876841206e-04,-4.27634335379970e-03
3.31131121482582e+09,-4.47156251552685e-04,-4.15061354768591e-03
3.38844156139193e+09,-4.12586161560657e-04,-4.02884742197634e-03
3.46736850452522e+09,-3.78443742722171e-04,-3.91093537951744e-03
3.54813389233565e+09,-3.44762391865072e-04,-3.79676913819800e-03
3.63078054770091e+09,-3.11572818010517e-04,-3.68624180605622e-03
3.71535229097162e+09,-2.78903097842989e-04,-3.57924795483434e-03
3.80189396320550e+09,-2.46778735459348e-04,-3.47568369155944e-03
3.89045144994269e+09,-2.15222726362094e-04,-3.37544672771901e-03
3.98107170553486e+09,-1.84255625600678e-04,-3.27843644559722e-03
4.07380277804101e+09,-1.53895619902505e-04,-3.18455396135209e-03
4.16869383470323e+09,-1.24158603575576e-04,-3.09370218442846e-03
4.26579518801580e+09,-9.50582579123995e-05,-3.00578587293314e-03
4.36515832240153e+09,-6.66061337750911e-05,-2.92071168463195e-03
4.46683592150950e+09,-3.88117369994418e-05,-2.83838822326949e-03
4.57088189614862e+09,-1.16826162228879e-05,-2.75872607995971e-03
4.67735141287185e+09,1.47755472886159e-05,-2.68163786944380e-03
4.78630092322624e+09,4.05588482572628e-05,-2.60703826106495e-03
4.89778819368432e+09,6.56650649086289e-05,-2.53484400436144e-03
5.01187233627258e+09,9.00935658448698e-05,-2.46497394923285e-03
5.12861383991350e+09,1.13845216732930e-04,-2.39734906068681e-03
5.24807460249757e+09,1.36922287254517e-04,-2.33189242822081e-03
5.37031796370237e+09,1.59328358750684e-04,-2.26852926994306e-03
5.49540873857609e+09,1.81068232972601e-04,-2.20718693157765e-03
5.62341325190333e+09,2.02147842325325e-04,-2.14779488053888e-03
5.75439937337140e+09,2.22574161962938e-04,-2.09028469529444e-03
5.88843655355572e+09,2.42355124061578e-04,-2.03459005026645e-03
6.02559586074340e+09,2.61499534563077e-04,-1.98064669654490e-03
6.16595001861464e+09,2.80016992646402e-04,-1.92839243870813e-03
6.30957344480175e+09,2.97917813148629e-04,-1.87776710806027e-03
6.45654229034637e+09,3.15212952119710e-04,-1.82871253260620e-03
6.60693448007577e+09,3.31913935660315e-04,-1.78117250409188e-03
6.76082975391962e+09,3.48032792156142e-04,-1.73509274243871e-03
6.91830970918916e+09,3.63581987988993e-04,-1.69042085790113e-03
7.07945784384117e+09,3.78574366771439e-04,-1.64710631126950e-03
7.24435960074969e+09,3.93023092123263e-04,-1.60510037243434e-03
7.41310241300896e+09,4.06941593977963e-04,-1.56435607761626e-03
7.58577575029162e+09,4.20343518382952e-04,-1.52482818555293e-03
7.76247116628669e+09,4.33242680733247e-04,-1.48647313292051e-03
7.94328234724258e+09,4.45653022357185e-04,-1.44924898924906e-03
8.12830516164075e+09,4.57588570355172e-04,-1.41311541157509e-03
8.31763771102647e+09,4.69063400575418e-04,-1.37803359905516e-03
8.51138038202351e+09,4.80091603598446e-04,-1.34396624774463e-03
8.70963589956055e+09,4.90687253590051e-04,-1.31087750572763e-03
8.91250938133719e+09,5.00864379874673e-04,-1.27873292876319e-03
9.12010839355883e+09,5.10636941073610e-04,-1.24749943659334e-03
9.33254300796963e+09,5.20018801649330e-04,-1.21714527004038e-03
9.54992586021408e+09,5.29023710693329e-04,-1.18763994900118e-03
9.77237220955782e+09,5.37665282795417e-04,-1.15895423142873e-03
9.99999999999970e+09,5.45956980832438e-04,-1.13106007337382e-03
1.02329299228072e+10,5.53912100517661e-04,-1.10393059014397e-03
1.04712854805087e+10,5.61543756554446e-04,-1.07754001862084e-03
1.07151930523757e+10,5.68864870244599e-04,-1.05186368076394e-03
1.09647819614315e+10,5.75888158405716e-04,-1.02687794831547e-03
1.12201845430193e+10,5.82626123459869e-04,-1.00256020870892e-03
1.14815362149685e+10,5.89091044562357e-04,-9.78888832174380e-04
1.17489755493949e+10,5.95294969647856e-04,-9.55843140023766e-04
1.20226443461738e+10,6.01249708278557e-04,-9.33403374091278e-04
1.23026877081234e+10,6.06966825187754e-04,-9.11550667297661e-04
1.25892541179413e+10,6.12457634420859e-04,-8.90267015301440e-04
1.28824955169310e+10,6.17733193983094e-04,-8.69535249194680e-04
1.31825673855637e+10,6.22804300912465e-04,-8.49339009198845e-04
1.34896288259161e+10,6.27681486703423e-04,-8.29662719311975e-04
1.38038426460284e+10,6.32375013014273e-04,-8.10491562857554e-04
1.41253754462271e+10,6.36894867598745e-04,-7.91811458884063e-04
1.44543977074588e+10,6.41250760407522e-04,-7.73609039363163e-04
1.47910838816816e+10,6.45452119812553e-04,-7.55871627134980e-04
1.51356124843616e+10,6.49508088911365e-04,-7.38587214548502e-04
1.54881661891243e+10,6.53427521873847e-04,-7.21744442746225e-04
1.58489319246107e+10,6.57218980297860e-04,-7.05332581542038e-04
1.62181009735888e+10,6.60890729543963e-04,-6.89341509842550e-04
1.65958690743751e+10,6.64450735022863e-04,-6.73761696562177e-04
1.69824365246169e+10,6.67906658411753e-04,-6.58584181982684e-04
1.73780082874932e+10,6.71265853778745e-04,-6.43800559508413e-04
1.77827941003887e+10,6.74535363596929e-04,-6.29402957767563e-04
1.81970085860993e+10,6.77721914631779e-04,-6.15384023010332e-04
1.86208713666281e+10,6.80831913688460e-04,-6.01736901753196e-04
1.90546071796319e+10,6.83871443207289e-04,-5.88455223618241e-04
1.94984459975799e+10,6.86846256699588e-04,-5.75533084314698e-04
1.99526231496882e+10,6.89761774017562e-04,-5.62965028708633e-04
2.04173794466947e+10,6.92623076457081e-04,-5.50746033924991e-04
2.08929613085398e+10,6.95434901694598e-04,-5.38871492424468e-04
2.13796208950217e+10,6.98201638564858e-04,-5.27337194996185e-04
2.18776162394949e+10,7.00927321690840e-04,-5.16139313605284e-04
2.23872113856827e+10,7.03615625982659e-04,-5.05274384033781e-04
2.29086765276770e+10,7.06269861028904e-04,-4.94739288251739e-04
2.34422881531985e+10,7.08892965410434e-04,-4.84531236455706e-04
2.39883291901942e+10,7.11487500973718e-04,-4.74647748711720e-04
2.45470891568496e+10,7.14055647109193e-04,-4.65086636141165e-04
2.51188643150950e+10,7.16599195087982e-04,-4.55845981589751e-04
2.57039578276879e+10,7.19119542518298e-04,-4.46924119723236e-04
2.63026799189530e+10,7.21617687992700e-04,-4.38319616497083e-04
2.69153480392683e+10,7.24094226004573e-04,-4.30031247953092e-04
2.75422870333808e+10,7.26549342221401e-04,-4.22057978302246e-04
2.81838293126437e+10,7.28982809210335e-04,-4.14398937261016e-04
2.88403150312652e+10,7.31393982718902e-04,-4.07053396617428e-04
2.95120922666630e+10,7.33781798620454e-04,-4.00020746013367e-04
3.01995172040192e+10,7.36144770639930e-04,-3.93300467941549e-04
3.09029543251350e+10,7.38480988979889e-04,-3.86892111967781e-04
3.16227766016828e+10,7.40788119970162e-04,-3.80795268203169e-04
3.23593656929618e+10,7.43063406866313e-04,-3.75009540065212e-04
3.31131121482581e+10,7.45303671922051e-04,-3.69534516381929e-04
3.38844156139192e+10,7.47505319859198e-04,-3.64369742908635e-04
3.46736850452521e+10,7.49664342854682e-04,-3.59514693343232e-04
3.54813389233564e+10,7.51776327159252e-04,-3.54968739940807e-04
3.63078054770090e+10,7.53836461453811e-04,-3.50731123844626e-04
3.71535229097161e+10,7.55839547040502e-04,-3.46800925264895e-04
3.80189396320549e+10,7.57780009953710e-04,-3.43177033650245e-04
3.89045144994268e+10,7.59651915062125e-04,-3.39858118010746e-04
3.98107170553485e+10,7.61448982218591e-04,-3.36842597561004e-04
4.07380277804100e+10,7.63164604497250e-04,-3.34128612862550e-04
4.16869383470322e+10,7.64791868539037e-04,-3.31713997651834e-04
4.26579518801579e+10,7.66323577008307e-04,-3.29596251545699e-04
4.36515832240152e+10,7.67752273142775e-04,-3.27772513819387e-04
4.46683592150949e+10,7.69070267359269e-04,-3.26239538452893e-04
4.57088189614861e+10,7.70269665856624e-04,-3.24993670640594e-04
4.67735141287184e+10,7.71342401138077e-04,-3.24030824953935e-04
4.78630092322623e+10,7.72280264354896e-04,-3.23346465342090e-04
4.89778819368431e+10,7.73074939355056e-04,-3.22935587146128e-04
5.01187233627257e+10,7.73718038302996e-04,-3.22792701292276e-04
5.12861383991349e+10,7.74201138720348e-04,-3.22911820817789e-04
5.24807460249756e+10,7.74515821783784e-04,-3.23286449868259e-04
5.37031796370236e+10,7.74653711702136e-04,-3.23909575291958e-04
5.49540873857607e+10,7.74606515985875e-04,-3.24773660938702e-04
5.62341325190331e+10,7.74366066411632e-04,-3.25870644756123e-04
5.75439937337139e+10,7.73924360478555e-04,-3.27191938757567e-04
5.88843655355570e+10,7.73273603147675e-04,-3.28728431920126e-04
6.02559586074339e+10,7.72406248651871e-04,-3.30470496053699e-04
6.16595001861463e+10,7.71315042162883e-04,-3.32407994665353e-04
6.30957344480173e+10,7.69993061100306e-04,-3.34530294828221e-04
6.45654229034635e+10,7.68433755868704e-04,-3.36826282047891e-04
6.60693448007575e+10,7.66630989810682e-04,-3.39284378105072e-04
6.76082975391960e+10,7.64579078164800e-04,-3.41892561840172e-04
6.91830970918914e+10,7.62272825821458e-04,-3.44638392830942e-04
7.07945784384115e+10,7.59707563671187e-04,-3.47509037903194e-04
7.24435960074967e+10,7.56879183343724e-04,-3.50491300401758e-04
7.41310241300894e+10,7.53784170139369e-04,-3.53571652136725e-04
7.58577575029159e+10,7.50419633956004e-04,-3.56736267909414e-04
7.76247116628667e+10,7.46783338019737e-04,-3.59971062508936e-04
7.94328234724256e+10,7.42873725228665e-04,-3.63261730059374e-04
8.12830516164073e+10,7.38689941923589e-04,-3.66593785583527e-04
8.31763771102644e+10,7.34231858901952e-04,-3.69952608636705e-04
8.51138038202349e+10,7.29500089496959e-04,-3.73323488848043e-04
8.70963589956053e+10,7.24496004547149e-04,-3.76691673192927e-04
8.91250938133717e+10,7.19221744089345e-04,-3.80042414802777e-04
9.12010839355880e+10,7.13680225614962e-04,-3.83361023101314e-04
9.33254300796961e+10,7.07875148739293e-04,-3.86632915039046e-04
9.54992586021405e+10,7.01810996146300e-04,-3.89843667177557e-04
9.77237220955779e+10,6.95493030683286e-04,-3.92979068359293e-04
9.99999999999967e+10,6.88927288499989e-04,-3.96025172676433e-04
1.02329299228072e+11,6.82120568143988e-04,-3.98968352437185e-04
1.04712854805087e+11,6.75080415548528e-04,-4.01795350809333e-04
1.07151930523757e+11,6.67815104874762e-04,-4.04493333805505e-04
1.09647819614315e+11,6.60333615198994e-04,-4.07049941261928e-04
1.12201845430193e+11,6.52645603067654e-04,-4.09453336450861e-04
1.14815362149685e+11,6.44761370977442e-04,-4.11692253959675e-04
1.17489755493949e+11,6.36691831874078e-04,-4.13756045465860e-04
1.20226443461737e+11,6.28448469801925e-04,-4.15634723037601e-04
1.23026877081234e+11,6.20043296876587e-04,-4.17318999593724e-04
1.25892541179413e+11,6.11488806792158e-04,-4.18800326167964e-04
1.28824955169309e+11,6.02797925115562e-04,-4.20070925636000e-04
1.31825673855636e+11,5.93983956659408e-04,-4.21123822584889e-04
1.34896288259161e+11,5.85060530262337e-04,-4.21952869029252e-04
1.38038426460284e+11,5.76041541341461e-04,-4.22552765709437e-04
1.41253754462271e+11,5.66941092613349e-04,-4.22919078741784e-04
1.44543977074588e+11,5.57773433408587e-04,-4.23048251430956e-04
1.47910838816816e+11,5.48552898028070e-04,-4.22937611098419e-04
1.51356124843616e+11,5.39293843608630e-04,-4.22585370827402e-04
1.54881661891243e+11,5.30010587978075e-04,-4.21990626074748e-04
1.58489319246106e+11,5.20717347986137e-04,-4.21153346152155e-04
1.62181009735888e+11,5.11428178799750e-04,-4.20074360630826e-04
1.65958690743751e+11,5.02156914643437e-04,-4.18755340777334e-04
1.69824365246169e+11,4.92917111454702e-04,-4.17198776180243e-04
1.73780082874932e+11,4.83721991904087e-04,-4.15407946777435e-04
1.77827941003886e+11,4.74584393206940e-04,-4.13386890541504e-04
1.81970085860992e+11,4.65516718119741e-04,-4.11140367127144e-04
1.86208713666281e+11,4.56530889481270e-04,-4.08673817822687e-04
1.90546071796318e+11,4.47638308616606e-04,-4.05993322185471e-04
1.94984459975798e+11,4.38849817877679e-04,-4.03105551770518e-04
1.99526231496881e+11,4.30175667546109e-04,-4.00017721387552e-04
2.04173794466946e+11,4.21625487274441e-04,-3.96737538339443e-04
2.08929613085397e+11,4.13208262190138e-04,-3.93273150107053e-04
2.13796208950216e+11,4.04932313732951e-04,-3.89633090953644e-04
2.18776162394948e+11,3.96805285247344e-04,-3.85826227917703e-04
2.23872113856827e+11,3.88834132296190e-04,-3.81861706660602e-04
2.29086765276770e+11,3.81025117616884e-04,-3.77748897619093e-04
2.34422881531984e+11,3.73383810591331e-04,-3.73497342896770e-04
2.39883291901941e+11,3.65915091059859e-04,-3.69116704303863e-04
2.45470891568495e+11,3.58623157267583e-04,-3.64616712927483e-04
2.51188643150950e+11,3.51511537699812e-04,-3.60007120581015e-04
2.57039578276878e+11,3.44583106527266e-04,-3.55297653449154e-04
2.63026799189529e+11,3.37840102362810e-04,-3.50497968203008e-04
2.69153480392683e+11,3.31284150005825e-04,-3.45617610823596e-04
2.75422870333807e+11,3.24916284837958e-04,-3.40665978329542e-04
2.81838293126436e+11,3.18736979523734e-04,-3.35652283563706e-04
2.88403150312651e+11,3.12746172663904e-04,-3.30585523153030e-04
2.95120922666629e+11,3.06943299051531e-04,-3.25474448714624e-04
3.01995172040191e+11,3.01327321183051e-04,-3.20327541344064e-04
3.09029543251349e+11,2.95896761686494e-04,-3.15152989384564e-04
3.16227766016827e+11,2.90649736344053e-04,-3.09958669440193e-04
3.23593656929617e+11,2.85583987398234e-04,-3.04752130566960e-04
3.31131121482580e+11,2.80696916851734e-04,-2.99540581547461e-04
3.38844156139191e+11,2.75985619495147e-04,-2.94330881125905e-04
3.46736850452520e+11,2.71446915414082e-04,-2.89129531064628e-04
3.54813389233563e+11,2.67077381756462e-04,-2.83942671861243e-04
3.63078054770089e+11,2.62873383564800e-04,-2.78776080951313e-04
3.71535229097160e+11,2.58831103502717e-04,-2.73635173212348e-04
3.80189396320548e+11,2.54946570332044e-04,-2.68525003575453e-04
3.89045144994267e+11,2.51215686020659e-04,-2.63450271548040e-04
3.98107170553484e+11,2.47634251388900e-04,-2.58415327445526e-04
4.07380277804099e+11,2.44197990218895e-04,-2.53424180137574e-04
4.16869383470321e+11,2.40902571782637e-04,-2.48480506110081e-04
4.26579518801578e+11,2.37743631755735e-04,-2.43587659655666e-04
4.36515832240151e+11,2.34716791508349e-04,-2.38748684009806e-04
4.46683592150948e+11,2.31817675781074e-04,-2.33966323258081e-04
4.57088189614859e+11,2.29041928765295e-04,-2.29243034852505e-04
4.67735141287182e+11,2.26385228625223e-04,-2.24581002582897e-04
4.78630092322622e+11,2.23843300506838e-04,-2.19982149862870e-04
4.89778819368430e+11,2.21411928090724e-04,-2.15448153200392e-04
5.01187233627255e+11,2.19086963750813e-04,-2.10980455737763e-04
5.12861383991347e+11,2.16864337391567e-04,-2.06580280753485e-04
5.24807460249755e+11,2.14740064035955e-04,-2.02248645035322e-04
5.37031796370234e+11,2.12710250242630e-04,-1.97986372042435e-04
5.49540873857606e+11,2.10771099432847e-04,-1.93794104786106e-04
5.62341325190330e+11,2.08918916206053e-04,-1.89672318371073e-04
5.75439937337137e+11,2.07150109725833e-04,-1.85621332145915e-04
5.88843655355569e+11,2.05461196253597e-04,-1.81641321425007e-04
6.02559586074337e+11,2.03848800908972e-04,-1.77732328748067e-04
6.16595001861461e+11,2.02309658730322e-04,-1.73894274655276e-04
6.30957344480172e+11,2.00840615107830e-04,-1.70126967960449e-04
6.45654229034633e+11,1.99438625656298e-04,-1.66430115513341e-04
6.60693448007573e+11,1.98100755594476e-04,-1.62803331444269e-04
6.76082975391958e+11,1.96824178689206e-04,-1.59246145894221e-04
6.91830970918913e+11,1.95606175822980e-04,-1.55758013232076e-04
7.07945784384113e+11,1.94444133237086e-04,-1.52338319769232e-04
7.24435960074965e+11,1.93335540497437e-04,-1.48986390983532e-04
7.41310241300892e+11,1.92277988231795e-04,-1.45701498261909e-04
7.58577575029157e+11,1.91269165673547e-04,-1.42482865184597e-04
7.76247116628665e+11,1.90306858054423e-04,-1.39329673361048e-04
7.94328234724254e+11,1.89388943875197e-04,-1.36241067842194e-04
8.12830516164071e+11,1.88513392087778e-04,-1.33216162124013e-04
8.31763771102642e+11,1.87678259212531e-04,-1.30254042765629e-04
8.51138038202347e+11,1.86881686416825e-04,-1.27353773639591e-04
8.70963589956050e+11,1.86121896573948e-04,-1.24514399837319e-04
8.91250938133714e+11,1.85397191321366e-04,-1.21734951247690e-04
9.12010839355878e+11,1.84705948134658e-04,-1.19014445828656e-04
9.33254300796958e+11,1.84046617429357e-04,-1.16351892593735e-04
9.54992586021402e+11,1.83417719703766e-04,-1.13746294328385e-04
9.77237220955776e+11,1.82817842731463e-04,-1.11196650057896e-04
1.00000000000000e+12,1.82245638811933e-04,-1.08701957282014e-04
